
\data\
ngram 1=12

\1-grams:
-1.041393	</s>
-99	<s>
-1.041393	EIGHT
-1.041393	FIVE
-1.041393	FOUR
-1.041393	NINE
-1.041393	ONE
-1.041393	SEVEN
-1.041393	SIX
-1.041393	THREE
-1.041393	TWO
-1.041393	ZERO

\end\
